digraph Tree {
node [shape=box] ;
0 [label="thal <= 3.867\nentropy = 0.987\nsamples = 203\nvalue = [115, 88]"] ;
1 [label="age <= 53.5\nentropy = 0.682\nsamples = 105\nvalue = [86, 19]"] ;
0 -> 1 [labeldistance=2.5, labelangle=45, headlabel="True"] ;
2 [label="ST_depression <= 3.55\nentropy = 0.135\nsamples = 53\nvalue = [52, 1]"] ;
1 -> 2 ;
3 [label="entropy = 0.0\nsamples = 52\nvalue = [52, 0]"] ;
2 -> 3 ;
4 [label="entropy = 0.0\nsamples = 1\nvalue = [0, 1]"] ;
2 -> 4 ;
5 [label="induced_angina <= 0.5\nentropy = 0.931\nsamples = 52\nvalue = [34, 18]"] ;
1 -> 5 ;
6 [label="ST_depression <= 1.85\nentropy = 0.722\nsamples = 40\nvalue = [32, 8]"] ;
5 -> 6 ;
7 [label="ST_depression <= 0.05\nentropy = 0.503\nsamples = 36\nvalue = [32, 4]"] ;
6 -> 7 ;
8 [label="blood pressure <= 129.0\nentropy = 0.787\nsamples = 17\nvalue = [13, 4]"] ;
7 -> 8 ;
9 [label="entropy = 0.0\nsamples = 6\nvalue = [6, 0]"] ;
8 -> 9 ;
10 [label="serum_cholestoral <= 306.5\nentropy = 0.946\nsamples = 11\nvalue = [7, 4]"] ;
8 -> 10 ;
11 [label="age <= 61.0\nentropy = 0.881\nsamples = 10\nvalue = [7, 3]"] ;
10 -> 11 ;
12 [label="electrocardiographic <= 1.0\nentropy = 1.0\nsamples = 6\nvalue = [3, 3]"] ;
11 -> 12 ;
13 [label="entropy = 0.0\nsamples = 2\nvalue = [2, 0]"] ;
12 -> 13 ;
14 [label="chest_pain <= 3.0\nentropy = 0.811\nsamples = 4\nvalue = [1, 3]"] ;
12 -> 14 ;
15 [label="entropy = 0.0\nsamples = 3\nvalue = [0, 3]"] ;
14 -> 15 ;
16 [label="entropy = 0.0\nsamples = 1\nvalue = [1, 0]"] ;
14 -> 16 ;
17 [label="entropy = 0.0\nsamples = 4\nvalue = [4, 0]"] ;
11 -> 17 ;
18 [label="entropy = 0.0\nsamples = 1\nvalue = [0, 1]"] ;
10 -> 18 ;
19 [label="entropy = 0.0\nsamples = 19\nvalue = [19, 0]"] ;
7 -> 19 ;
20 [label="entropy = 0.0\nsamples = 4\nvalue = [0, 4]"] ;
6 -> 20 ;
21 [label="chest_pain <= 3.5\nentropy = 0.65\nsamples = 12\nvalue = [2, 10]"] ;
5 -> 21 ;
22 [label="entropy = 0.0\nsamples = 2\nvalue = [2, 0]"] ;
21 -> 22 ;
23 [label="entropy = 0.0\nsamples = 10\nvalue = [0, 10]"] ;
21 -> 23 ;
24 [label="ST_depression <= 0.7\nentropy = 0.876\nsamples = 98\nvalue = [29, 69]"] ;
0 -> 24 [labeldistance=2.5, labelangle=-45, headlabel="False"] ;
25 [label="serum_cholestoral <= 219.5\nentropy = 0.974\nsamples = 32\nvalue = [19, 13]"] ;
24 -> 25 ;
26 [label="blood pressure <= 114.0\nentropy = 0.469\nsamples = 10\nvalue = [9, 1]"] ;
25 -> 26 ;
27 [label="electrocardiographic <= 1.0\nentropy = 1.0\nsamples = 2\nvalue = [1, 1]"] ;
26 -> 27 ;
28 [label="entropy = 0.0\nsamples = 1\nvalue = [1, 0]"] ;
27 -> 28 ;
29 [label="entropy = 0.0\nsamples = 1\nvalue = [0, 1]"] ;
27 -> 29 ;
30 [label="entropy = 0.0\nsamples = 8\nvalue = [8, 0]"] ;
26 -> 30 ;
31 [label="blood pressure <= 122.0\nentropy = 0.994\nsamples = 22\nvalue = [10, 12]"] ;
25 -> 31 ;
32 [label="entropy = 0.0\nsamples = 6\nvalue = [6, 0]"] ;
31 -> 32 ;
33 [label="max_heart_rate <= 137.0\nentropy = 0.811\nsamples = 16\nvalue = [4, 12]"] ;
31 -> 33 ;
34 [label="chest_pain <= 2.5\nentropy = 0.811\nsamples = 4\nvalue = [3, 1]"] ;
33 -> 34 ;
35 [label="entropy = 0.0\nsamples = 1\nvalue = [0, 1]"] ;
34 -> 35 ;
36 [label="entropy = 0.0\nsamples = 3\nvalue = [3, 0]"] ;
34 -> 36 ;
37 [label="age <= 58.0\nentropy = 0.414\nsamples = 12\nvalue = [1, 11]"] ;
33 -> 37 ;
38 [label="entropy = 0.0\nsamples = 9\nvalue = [0, 9]"] ;
37 -> 38 ;
39 [label="ST_depression <= 0.35\nentropy = 0.918\nsamples = 3\nvalue = [1, 2]"] ;
37 -> 39 ;
40 [label="entropy = 0.0\nsamples = 2\nvalue = [0, 2]"] ;
39 -> 40 ;
41 [label="entropy = 0.0\nsamples = 1\nvalue = [1, 0]"] ;
39 -> 41 ;
42 [label="chest_pain <= 1.5\nentropy = 0.614\nsamples = 66\nvalue = [10, 56]"] ;
24 -> 42 ;
43 [label="blood pressure <= 130.0\nentropy = 0.863\nsamples = 7\nvalue = [5, 2]"] ;
42 -> 43 ;
44 [label="serum_cholestoral <= 212.0\nentropy = 0.918\nsamples = 3\nvalue = [1, 2]"] ;
43 -> 44 ;
45 [label="entropy = 0.0\nsamples = 1\nvalue = [1, 0]"] ;
44 -> 45 ;
46 [label="entropy = 0.0\nsamples = 2\nvalue = [0, 2]"] ;
44 -> 46 ;
47 [label="entropy = 0.0\nsamples = 4\nvalue = [4, 0]"] ;
43 -> 47 ;
48 [label="slope <= 1.5\nentropy = 0.419\nsamples = 59\nvalue = [5, 54]"] ;
42 -> 48 ;
49 [label="age <= 64.5\nentropy = 0.918\nsamples = 9\nvalue = [3, 6]"] ;
48 -> 49 ;
50 [label="chest_pain <= 3.5\nentropy = 0.592\nsamples = 7\nvalue = [1, 6]"] ;
49 -> 50 ;
51 [label="vessels <= 1.0\nentropy = 1.0\nsamples = 2\nvalue = [1, 1]"] ;
50 -> 51 ;
52 [label="entropy = 0.0\nsamples = 1\nvalue = [1, 0]"] ;
51 -> 52 ;
53 [label="entropy = 0.0\nsamples = 1\nvalue = [0, 1]"] ;
51 -> 53 ;
54 [label="entropy = 0.0\nsamples = 5\nvalue = [0, 5]"] ;
50 -> 54 ;
55 [label="entropy = 0.0\nsamples = 2\nvalue = [2, 0]"] ;
49 -> 55 ;
56 [label="max_heart_rate <= 182.0\nentropy = 0.242\nsamples = 50\nvalue = [2, 48]"] ;
48 -> 56 ;
57 [label="blood pressure <= 112.0\nentropy = 0.144\nsamples = 49\nvalue = [1, 48]"] ;
56 -> 57 ;
58 [label="thal <= 6.5\nentropy = 0.65\nsamples = 6\nvalue = [1, 5]"] ;
57 -> 58 ;
59 [label="entropy = 0.0\nsamples = 1\nvalue = [1, 0]"] ;
58 -> 59 ;
60 [label="entropy = 0.0\nsamples = 5\nvalue = [0, 5]"] ;
58 -> 60 ;
61 [label="entropy = 0.0\nsamples = 43\nvalue = [0, 43]"] ;
57 -> 61 ;
62 [label="entropy = 0.0\nsamples = 1\nvalue = [1, 0]"] ;
56 -> 62 ;
}